{
    "elementwise_1d": {
        "float32": {
            "predictor": [
                {
                    "children_left": [
                        1,
                        2,
                        -1,
                        -1,
                        -1
                    ],
                    "children_right": [
                        4,
                        3,
                        -1,
                        -1,
                        -1
                    ],
                    "feature": [
                        0.0,
                        0.0,
                        -2.0,
                        -2.0,
                        -2.0
                    ],
                    "threshold": [
                        505000.0,
                        5512.0,
                        -2.0,
                        -2.0,
                        -2.0
                    ],
                    "value": [
                        [
                            0.0,
                            0.0,
                            0.0,
                            0.0
                        ],
                        [
                            0.0,
                            0.0,
                            0.0,
                            0.0
                        ],
                        [
                            0.18,
                            0.18,
                            0.17,
                            0.05
                        ],
                        [
                            1.91,
                            1.88,
                            1.82,
                            0.54
                        ],
                        [
                            46.35,
                            39.99,
                            49.01,
                            45.26
                        ]
                    ]
                },
                {
                    "children_left": [
                        1,
                        2,
                        -1,
                        -1,
                        -1
                    ],
                    "children_right": [
                        4,
                        3,
                        -1,
                        -1,
                        -1
                    ],
                    "feature": [
                        0.0,
                        0.0,
                        -2.0,
                        -2.0,
                        -2.0
                    ],
                    "threshold": [
                        5960.0,
                        1472.0,
                        -2.0,
                        -2.0,
                        -2.0
                    ],
                    "value": [
                        [
                            0.0,
                            0.0,
                            0.0,
                            0.0
                        ],
                        [
                            0.0,
                            0.0,
                            0.0,
                            0.0
                        ],
                        [
                            0.18,
                            0.18,
                            0.17,
                            0.05
                        ],
                        [
                            0.33,
                            0.34,
                            0.32,
                            0.1
                        ],
                        [
                            1.91,
                            1.88,
                            1.82,
                            0.54
                        ]
                    ]
                },
                {
                    "children_left": [
                        1,
                        2,
                        -1,
                        -1,
                        5,
                        -1,
                        -1
                    ],
                    "children_right": [
                        4,
                        3,
                        -1,
                        -1,
                        6,
                        -1,
                        -1
                    ],
                    "feature": [
                        0.0,
                        0.0,
                        -2.0,
                        -2.0,
                        0.0,
                        -2.0,
                        -2.0
                    ],
                    "threshold": [
                        500960.0,
                        1472.0,
                        -2.0,
                        -2.0,
                        5500000.0,
                        -2.0,
                        -2.0
                    ],
                    "value": [
                        [
                            0.0,
                            0.0,
                            0.0,
                            0.0
                        ],
                        [
                            0.0,
                            0.0,
                            0.0,
                            0.0
                        ],
                        [
                            0.18,
                            0.18,
                            0.17,
                            0.05
                        ],
                        [
                            0.33,
                            0.34,
                            0.32,
                            0.1
                        ],
                        [
                            0.0,
                            0.0,
                            0.0,
                            0.0
                        ],
                        [
                            46.35,
                            39.99,
                            49.01,
                            45.26
                        ],
                        [
                            40.19,
                            46.99,
                            47.04,
                            55.43
                        ]
                    ]
                },
                {
                    "children_left": [
                        1,
                        2,
                        -1,
                        -1,
                        5,
                        -1,
                        -1
                    ],
                    "children_right": [
                        4,
                        3,
                        -1,
                        -1,
                        6,
                        -1,
                        -1
                    ],
                    "feature": [
                        0.0,
                        0.0,
                        -2.0,
                        -2.0,
                        0.0,
                        -2.0,
                        -2.0
                    ],
                    "threshold": [
                        505000.0,
                        5512.0,
                        -2.0,
                        -2.0,
                        5500000.0,
                        -2.0,
                        -2.0
                    ],
                    "value": [
                        [
                            0.0,
                            0.0,
                            0.0,
                            0.0
                        ],
                        [
                            0.0,
                            0.0,
                            0.0,
                            0.0
                        ],
                        [
                            0.18,
                            0.18,
                            0.17,
                            0.05
                        ],
                        [
                            1.91,
                            1.88,
                            1.82,
                            0.54
                        ],
                        [
                            0.0,
                            0.0,
                            0.0,
                            0.0
                        ],
                        [
                            46.35,
                            39.99,
                            49.01,
                            45.26
                        ],
                        [
                            40.19,
                            46.99,
                            47.04,
                            55.43
                        ]
                    ]
                },
                {
                    "children_left": [
                        1,
                        -1,
                        -1
                    ],
                    "children_right": [
                        2,
                        -1,
                        -1
                    ],
                    "feature": [
                        0.0,
                        -2.0,
                        -2.0
                    ],
                    "threshold": [
                        5500000.0,
                        -2.0,
                        -2.0
                    ],
                    "value": [
                        [
                            0.0,
                            0.0,
                            0.0,
                            0.0
                        ],
                        [
                            46.35,
                            39.99,
                            49.01,
                            45.26
                        ],
                        [
                            40.19,
                            46.99,
                            47.04,
                            55.43
                        ]
                    ]
                },
                {
                    "children_left": [
                        1,
                        2,
                        3,
                        -1,
                        -1,
                        -1,
                        -1
                    ],
                    "children_right": [
                        6,
                        5,
                        4,
                        -1,
                        -1,
                        -1,
                        -1
                    ],
                    "feature": [
                        0.0,
                        0.0,
                        0.0,
                        -2.0,
                        -2.0,
                        -2.0,
                        -2.0
                    ],
                    "threshold": [
                        5005000.0,
                        5960.0,
                        1472.0,
                        -2.0,
                        -2.0,
                        -2.0,
                        -2.0
                    ],
                    "value": [
                        [
                            0.0,
                            0.0,
                            0.0,
                            0.0
                        ],
                        [
                            0.0,
                            0.0,
                            0.0,
                            0.0
                        ],
                        [
                            0.0,
                            0.0,
                            0.0,
                            0.0
                        ],
                        [
                            0.18,
                            0.18,
                            0.17,
                            0.05
                        ],
                        [
                            0.33,
                            0.34,
                            0.32,
                            0.1
                        ],
                        [
                            1.91,
                            1.88,
                            1.82,
                            0.54
                        ],
                        [
                            40.19,
                            46.99,
                            47.04,
                            55.43
                        ]
                    ]
                },
                {
                    "children_left": [
                        1,
                        2,
                        -1,
                        -1,
                        5,
                        -1,
                        -1
                    ],
                    "children_right": [
                        4,
                        3,
                        -1,
                        -1,
                        6,
                        -1,
                        -1
                    ],
                    "feature": [
                        0.0,
                        0.0,
                        -2.0,
                        -2.0,
                        0.0,
                        -2.0,
                        -2.0
                    ],
                    "threshold": [
                        500960.0,
                        1472.0,
                        -2.0,
                        -2.0,
                        5500000.0,
                        -2.0,
                        -2.0
                    ],
                    "value": [
                        [
                            0.0,
                            0.0,
                            0.0,
                            0.0
                        ],
                        [
                            0.0,
                            0.0,
                            0.0,
                            0.0
                        ],
                        [
                            0.18,
                            0.18,
                            0.17,
                            0.05
                        ],
                        [
                            0.33,
                            0.34,
                            0.32,
                            0.1
                        ],
                        [
                            0.0,
                            0.0,
                            0.0,
                            0.0
                        ],
                        [
                            46.35,
                            39.99,
                            49.01,
                            45.26
                        ],
                        [
                            40.19,
                            46.99,
                            47.04,
                            55.43
                        ]
                    ]
                },
                {
                    "children_left": [
                        1,
                        2,
                        3,
                        -1,
                        -1,
                        -1,
                        -1
                    ],
                    "children_right": [
                        6,
                        5,
                        4,
                        -1,
                        -1,
                        -1,
                        -1
                    ],
                    "feature": [
                        0.0,
                        0.0,
                        0.0,
                        -2.0,
                        -2.0,
                        -2.0,
                        -2.0
                    ],
                    "threshold": [
                        505000.0,
                        5960.0,
                        1472.0,
                        -2.0,
                        -2.0,
                        -2.0,
                        -2.0
                    ],
                    "value": [
                        [
                            0.0,
                            0.0,
                            0.0,
                            0.0
                        ],
                        [
                            0.0,
                            0.0,
                            0.0,
                            0.0
                        ],
                        [
                            0.0,
                            0.0,
                            0.0,
                            0.0
                        ],
                        [
                            0.18,
                            0.18,
                            0.17,
                            0.05
                        ],
                        [
                            0.33,
                            0.34,
                            0.32,
                            0.1
                        ],
                        [
                            1.91,
                            1.88,
                            1.82,
                            0.54
                        ],
                        [
                            46.35,
                            39.99,
                            49.01,
                            45.26
                        ]
                    ]
                }
            ],
            "profiles": [
                [
                    2,
                    64,
                    64
                ],
                [
                    1,
                    16,
                    128
                ],
                [
                    2,
                    64,
                    256
                ],
                [
                    2,
                    16,
                    16384
                ]
            ]
        },
        "float64": {
            "predictor": [
                {
                    "children_left": [
                        1,
                        -1,
                        -1
                    ],
                    "children_right": [
                        2,
                        -1,
                        -1
                    ],
                    "feature": [
                        0.0,
                        -2.0,
                        -2.0
                    ],
                    "threshold": [
                        55000.0,
                        -2.0,
                        -2.0
                    ],
                    "value": [
                        [
                            0.0,
                            0.0,
                            0.0,
                            0.0
                        ],
                        [
                            1.62,
                            1.56,
                            1.09,
                            0.09
                        ],
                        [
                            10.34,
                            10.73,
                            9.91,
                            0.85
                        ]
                    ]
                },
                {
                    "children_left": [
                        1,
                        -1,
                        -1
                    ],
                    "children_right": [
                        2,
                        -1,
                        -1
                    ],
                    "feature": [
                        0.0,
                        -2.0,
                        -2.0
                    ],
                    "threshold": [
                        55000.0,
                        -2.0,
                        -2.0
                    ],
                    "value": [
                        [
                            0.0,
                            0.0,
                            0.0,
                            0.0
                        ],
                        [
                            1.62,
                            1.56,
                            1.09,
                            0.09
                        ],
                        [
                            10.34,
                            10.73,
                            9.91,
                            0.85
                        ]
                    ]
                },
                {
                    "children_left": [
                        1,
                        -1,
                        -1
                    ],
                    "children_right": [
                        2,
                        -1,
                        -1
                    ],
                    "feature": [
                        0.0,
                        -2.0,
                        -2.0
                    ],
                    "threshold": [
                        505000.0,
                        -2.0,
                        -2.0
                    ],
                    "value": [
                        [
                            0.0,
                            0.0,
                            0.0,
                            0.0
                        ],
                        [
                            1.62,
                            1.56,
                            1.09,
                            0.09
                        ],
                        [
                            21.74,
                            21.67,
                            24.32,
                            9.53
                        ]
                    ]
                }
            ],
            "profiles": [
                [
                    1,
                    32,
                    128
                ],
                [
                    2,
                    64,
                    256
                ],
                [
                    1,
                    8,
                    4096
                ],
                [
                    1,
                    128,
                    32768
                ]
            ]
        }
    },
    "elementwise_2d": {
        "float32": {
            "predictor": [
                {
                    "children_left": [
                        1,
                        2,
                        3,
                        -1,
                        -1,
                        6,
                        7,
                        -1,
                        -1,
                        10,
                        -1,
                        -1,
                        13,
                        14,
                        15,
                        -1,
                        17,
                        18,
                        -1,
                        -1,
                        -1,
                        22,
                        23,
                        -1,
                        -1,
                        -1,
                        27,
                        28,
                        29,
                        -1,
                        31,
                        32,
                        -1,
                        -1,
                        -1,
                        36,
                        37,
                        -1,
                        -1,
                        40,
                        -1,
                        -1,
                        43,
                        -1,
                        -1
                    ],
                    "children_right": [
                        12,
                        5,
                        4,
                        -1,
                        -1,
                        9,
                        8,
                        -1,
                        -1,
                        11,
                        -1,
                        -1,
                        26,
                        21,
                        16,
                        -1,
                        20,
                        19,
                        -1,
                        -1,
                        -1,
                        25,
                        24,
                        -1,
                        -1,
                        -1,
                        42,
                        35,
                        30,
                        -1,
                        34,
                        33,
                        -1,
                        -1,
                        -1,
                        39,
                        38,
                        -1,
                        -1,
                        41,
                        -1,
                        -1,
                        44,
                        -1,
                        -1
                    ],
                    "feature": [
                        0.0,
                        1.0,
                        0.0,
                        -2.0,
                        -2.0,
                        0.0,
                        0.0,
                        -2.0,
                        -2.0,
                        1.0,
                        -2.0,
                        -2.0,
                        1.0,
                        0.0,
                        1.0,
                        -2.0,
                        0.0,
                        1.0,
                        -2.0,
                        -2.0,
                        -2.0,
                        1.0,
                        0.0,
                        -2.0,
                        -2.0,
                        -2.0,
                        0.0,
                        1.0,
                        1.0,
                        -2.0,
                        1.0,
                        0.0,
                        -2.0,
                        -2.0,
                        -2.0,
                        0.0,
                        0.0,
                        -2.0,
                        -2.0,
                        1.0,
                        -2.0,
                        -2.0,
                        1.0,
                        -2.0,
                        -2.0
                    ],
                    "threshold": [
                        96.0,
                        10240.0,
                        48.0,
                        -2.0,
                        -2.0,
                        48.0,
                        24.0,
                        -2.0,
                        -2.0,
                        40960.0,
                        -2.0,
                        -2.0,
                        320.0,
                        10240.0,
                        40.0,
                        -2.0,
                        2560.0,
                        96.0,
                        -2.0,
                        -2.0,
                        -2.0,
                        40.0,
                        40960.0,
                        -2.0,
                        -2.0,
                        -2.0,
                        40960.0,
                        10240.0,
                        768.0,
                        -2.0,
                        2688.0,
                        2688.0,
                        -2.0,
                        -2.0,
                        -2.0,
                        768.0,
                        320.0,
                        -2.0,
                        -2.0,
                        40960.0,
                        -2.0,
                        -2.0,
                        768.0,
                        -2.0,
                        -2.0
                    ],
                    "value": [
                        [
                            0.0,
                            0.0,
                            0.0,
                            0.0,
                            0.0,
                            0.0,
                            0.0,
                            0.0,
                            0.0,
                            0.0,
                            0.0,
                            0.0,
                            0.0,
                            0.0,
                            0.0,
                            0.0,
                            0.0,
                            0.0,
                            0.0,
                            0.0,
                            0.0,
                            0.0,
                            0.0,
                            0.0,
                            0.0,
                            0.0,
                            0.0,
                            0.0
                        ],
                        [
                            0.0,
                            0.0,
                            0.0,
                            0.0,
                            0.0,
                            0.0,
                            0.0,
                            0.0,
                            0.0,
                            0.0,
                            0.0,
                            0.0,
                            0.0,
                            0.0,
                            0.0,
                            0.0,
                            0.0,
                            0.0,
                            0.0,
                            0.0,
                            0.0,
                            0.0,
                            0.0,
                            0.0,
                            0.0,
                            0.0,
                            0.0,
                            0.0
                        ],
                        [
                            0.0,
                            0.0,
                            0.0,
                            0.0,
                            0.0,
                            0.0,
                            0.0,
                            0.0,
                            0.0,
                            0.0,
                            0.0,
                            0.0,
                            0.0,
                            0.0,
                            0.0,
                            0.0,
                            0.0,
                            0.0,
                            0.0,
                            0.0,
                            0.0,
                            0.0,
                            0.0,
                            0.0,
                            0.0,
                            0.0,
                            0.0,
                            0.0
                        ],
                        [
                            3.34,
                            3.4,
                            3.36,
                            3.21,
                            4.48,
                            4.52,
                            4.41,
                            4.48,
                            4.64,
                            2.56,
                            4.36,
                            3.5,
                            4.33,
                            3.8,
                            4.26,
                            0.23,
                            0.1,
                            0.03,
                            1.64,
                            2.42,
                            3.2,
                            2.62,
                            3.91,
                            1.56,
                            2.15,
                            0.25,
                            0.12,
                            3.67
                        ],
                        [
                            6.13,
                            6.36,
                            6.28,
                            5.83,
                            6.28,
                            6.55,
                            6.52,
                            6.4,
                            6.72,
                            4.77,
                            6.68,
                            6.27,
                            6.86,
                            5.83,
                            6.59,
                            0.46,
                            0.21,
                            0.06,
                            3.13,
                            4.64,
                            5.83,
                            4.85,
                            5.99,
                            3.15,
                            4.09,
                            0.5,
                            0.24,
                            4.94
                        ],
                        [
                            0.0,
                            0.0,
                            0.0,
                            0.0,
                            0.0,
                            0.0,
                            0.0,
                            0.0,
                            0.0,
                            0.0,
                            0.0,
                            0.0,
                            0.0,
                            0.0,
                            0.0,
                            0.0,
                            0.0,
                            0.0,
                            0.0,
                            0.0,
                            0.0,
                            0.0,
                            0.0,
                            0.0,
                            0.0,
                            0.0,
                            0.0,
                            0.0
                        ],
                        [
                            0.0,
                            0.0,
                            0.0,
                            0.0,
                            0.0,
                            0.0,
                            0.0,
                            0.0,
                            0.0,
                            0.0,
                            0.0,
                            0.0,
                            0.0,
                            0.0,
                            0.0,
                            0.0,
                            0.0,
                            0.0,
                            0.0,
                            0.0,
                            0.0,
                            0.0,
                            0.0,
                            0.0,
                            0.0,
                            0.0,
                            0.0,
                            0.0
                        ],
                        [
                            3.96,
                            10.59,
                            9.32,
                            8.98,
                            11.22,
                            11.25,
                            10.18,
                            6.24,
                            7.66,
                            9.82,
                            9.41,
                            9.82,
                            9.08,
                            10.47,
                            9.2,
                            1.78,
                            0.82,
                            0.25,
                            0.96,
                            1.82,
                            3.52,
                            3.52,
                            6.19,
                            0.97,
                            5.08,
                            1.9,
                            0.94,
                            4.04
                        ],
                        [
                            7.2,
                            10.95,
                            9.19,
                            6.05,
                            10.75,
                            9.45,
                            9.6,
                            4.42,
                            10.68,
                            11.21,
                            6.93,
                            9.3,
                            10.29,
                            11.68,
                            7.25,
                            3.52,
                            1.63,
                            0.5,
                            1.99,
                            3.76,
                            6.85,
                            6.51,
                            9.71,
                            2.04,
                            6.36,
                            3.79,
                            1.89,
                            7.46
                        ],
                        [
                            0.0,
                            0.0,
                            0.0,
                            0.0,
                            0.0,
                            0.0,
                            0.0,
                            0.0,
                            0.0,
                            0.0,
                            0.0,
                            0.0,
                            0.0,
                            0.0,
                            0.0,
                            0.0,
                            0.0,
                            0.0,
                            0.0,
                            0.0,
                            0.0,
                            0.0,
                            0.0,
                            0.0,
                            0.0,
                            0.0,
                            0.0,
                            0.0
                        ],
                        [
                            9.51,
                            10.0,
                            9.95,
                            8.39,
                            9.41,
                            9.03,
                            10.18,
                            4.57,
                            9.23,
                            10.2,
                            9.53,
                            9.89,
                            10.35,
                            10.6,
                            8.58,
                            1.8,
                            0.82,
                            0.25,
                            3.84,
                            6.52,
                            9.42,
                            8.53,
                            7.54,
                            3.79,
                            6.46,
                            1.96,
                            0.95,
                            6.56
                        ],
                        [
                            5.96,
                            10.65,
                            10.55,
                            6.13,
                            6.31,
                            5.59,
                            6.57,
                            3.29,
                            6.78,
                            11.86,
                            6.5,
                            11.89,
                            5.95,
                            2.07,
                            3.69,
                            4.26,
                            1.67,
                            0.9,
                            2.87,
                            4.27,
                            5.58,
                            4.45,
                            3.53,
                            2.74,
                            3.48,
                            5.52,
                            3.73,
                            6.43
                        ],
                        [
                            0.0,
                            0.0,
                            0.0,
                            0.0,
                            0.0,
                            0.0,
                            0.0,
                            0.0,
                            0.0,
                            0.0,
                            0.0,
                            0.0,
                            0.0,
                            0.0,
                            0.0,
                            0.0,
                            0.0,
                            0.0,
                            0.0,
                            0.0,
                            0.0,
                            0.0,
                            0.0,
                            0.0,
                            0.0,
                            0.0,
                            0.0,
                            0.0
                        ],
                        [
                            0.0,
                            0.0,
                            0.0,
                            0.0,
                            0.0,
                            0.0,
                            0.0,
                            0.0,
                            0.0,
                            0.0,
                            0.0,
                            0.0,
                            0.0,
                            0.0,
                            0.0,
                            0.0,
                            0.0,
                            0.0,
                            0.0,
                            0.0,
                            0.0,
                            0.0,
                            0.0,
                            0.0,
                            0.0,
                            0.0,
                            0.0,
                            0.0
                        ],
                        [
                            0.0,
                            0.0,
                            0.0,
                            0.0,
                            0.0,
                            0.0,
                            0.0,
                            0.0,
                            0.0,
                            0.0,
                            0.0,
                            0.0,
                            0.0,
                            0.0,
                            0.0,
                            0.0,
                            0.0,
                            0.0,
                            0.0,
                            0.0,
                            0.0,
                            0.0,
                            0.0,
                            0.0,
                            0.0,
                            0.0,
                            0.0,
                            0.0
                        ],
                        [
                            2.57,
                            1.43,
                            1.66,
                            1.74,
                            1.16,
                            1.15,
                            0.39,
                            0.78,
                            1.73,
                            0.38,
                            2.62,
                            0.68,
                            0.69,
                            0.21,
                            2.52,
                            0.11,
                            0.05,
                            0.02,
                            2.76,
                            2.57,
                            2.41,
                            1.78,
                            2.24,
                            2.62,
                            1.13,
                            0.12,
                            0.06,
                            1.6
                        ],
                        [
                            0.0,
                            0.0,
                            0.0,
                            0.0,
                            0.0,
                            0.0,
                            0.0,
                            0.0,
                            0.0,
                            0.0,
                            0.0,
                            0.0,
                            0.0,
                            0.0,
                            0.0,
                            0.0,
                            0.0,
                            0.0,
                            0.0,
                            0.0,
                            0.0,
                            0.0,
                            0.0,
                            0.0,
                            0.0,
                            0.0,
                            0.0,
                            0.0
                        ],
                        [
                            0.0,
                            0.0,
                            0.0,
                            0.0,
                            0.0,
                            0.0,
                            0.0,
                            0.0,
                            0.0,
                            0.0,
                            0.0,
                            0.0,
                            0.0,
                            0.0,
                            0.0,
                            0.0,
                            0.0,
                            0.0,
                            0.0,
                            0.0,
                            0.0,
                            0.0,
                            0.0,
                            0.0,
                            0.0,
                            0.0,
                            0.0,
                            0.0
                        ],
                        [
                            2.68,
                            1.68,
                            1.73,
                            1.79,
                            2.2,
                            2.19,
                            1.11,
                            1.78,
                            2.59,
                            0.99,
                            2.7,
                            1.46,
                            1.58,
                            0.69,
                            2.55,
                            0.11,
                            0.05,
                            0.02,
                            2.68,
                            2.68,
                            2.59,
                            1.89,
                            2.65,
                            2.68,
                            1.26,
                            0.12,
                            0.06,
                            2.3
                        ],
                        [
                            4.44,
                            3.03,
                            3.08,
                            3.43,
                            3.98,
                            4.03,
                            2.11,
                            3.3,
                            4.44,
                            1.85,
                            4.44,
                            2.63,
                            2.9,
                            1.33,
                            4.44,
                            0.23,
                            0.1,
                            0.03,
                            4.29,
                            4.44,
                            4.42,
                            3.54,
                            4.37,
                            4.49,
                            2.38,
                            0.25,
                            0.12,
                            3.48
                        ],
                        [
                            6.71,
                            4.38,
                            5.07,
                            5.52,
                            4.37,
                            4.32,
                            1.51,
                            2.96,
                            6.32,
                            1.42,
                            6.81,
                            2.41,
                            2.53,
                            0.84,
                            6.59,
                            0.45,
                            0.2,
                            0.06,
                            6.59,
                            6.63,
                            6.68,
                            6.06,
                            6.63,
                            6.67,
                            4.79,
                            0.5,
                            0.24,
                            4.72
                        ],
                        [
                            0.0,
                            0.0,
                            0.0,
                            0.0,
                            0.0,
                            0.0,
                            0.0,
                            0.0,
                            0.0,
                            0.0,
                            0.0,
                            0.0,
                            0.0,
                            0.0,
                            0.0,
                            0.0,
                            0.0,
                            0.0,
                            0.0,
                            0.0,
                            0.0,
                            0.0,
                            0.0,
                            0.0,
                            0.0,
                            0.0,
                            0.0,
                            0.0
                        ],
                        [
                            0.0,
                            0.0,
                            0.0,
                            0.0,
                            0.0,
                            0.0,
                            0.0,
                            0.0,
                            0.0,
                            0.0,
                            0.0,
                            0.0,
                            0.0,
                            0.0,
                            0.0,
                            0.0,
                            0.0,
                            0.0,
                            0.0,
                            0.0,
                            0.0,
                            0.0,
                            0.0,
                            0.0,
                            0.0,
                            0.0,
                            0.0,
                            0.0
                        ],
                        [
                            6.47,
                            2.33,
                            3.71,
                            5.09,
                            1.53,
                            1.54,
                            0.41,
                            0.9,
                            2.74,
                            0.41,
                            6.27,
                            0.83,
                            0.81,
                            0.22,
                            5.7,
                            0.21,
                            0.1,
                            0.05,
                            6.77,
                            6.51,
                            6.07,
                            5.46,
                            6.01,
                            6.36,
                            4.05,
                            0.49,
                            0.23,
                            2.55
                        ],
                        [
                            10.23,
                            2.87,
                            4.7,
                            7.93,
                            1.58,
                            1.56,
                            0.43,
                            0.88,
                            3.26,
                            0.45,
                            9.8,
                            0.85,
                            0.83,
                            0.23,
                            4.64,
                            0.22,
                            0.11,
                            0.05,
                            10.34,
                            10.48,
                            9.63,
                            9.54,
                            9.42,
                            9.54,
                            8.5,
                            1.73,
                            0.9,
                            3.1
                        ],
                        [
                            10.13,
                            6.11,
                            8.07,
                            9.51,
                            5.72,
                            5.72,
                            1.55,
                            3.52,
                            9.51,
                            1.5,
                            9.96,
                            2.84,
                            2.98,
                            0.85,
                            4.82,
                            0.79,
                            0.4,
                            0.18,
                            10.06,
                            10.25,
                            10.23,
                            10.46,
                            10.55,
                            9.89,
                            10.35,
                            1.88,
                            0.93,
                            6.4
                        ],
                        [
                            0.0,
                            0.0,
                            0.0,
                            0.0,
                            0.0,
                            0.0,
                            0.0,
                            0.0,
                            0.0,
                            0.0,
                            0.0,
                            0.0,
                            0.0,
                            0.0,
                            0.0,
                            0.0,
                            0.0,
                            0.0,
                            0.0,
                            0.0,
                            0.0,
                            0.0,
                            0.0,
                            0.0,
                            0.0,
                            0.0,
                            0.0,
                            0.0
                        ],
                        [
                            0.0,
                            0.0,
                            0.0,
                            0.0,
                            0.0,
                            0.0,
                            0.0,
                            0.0,
                            0.0,
                            0.0,
                            0.0,
                            0.0,
                            0.0,
                            0.0,
                            0.0,
                            0.0,
                            0.0,
                            0.0,
                            0.0,
                            0.0,
                            0.0,
                            0.0,
                            0.0,
                            0.0,
                            0.0,
                            0.0,
                            0.0,
                            0.0
                        ],
                        [
                            0.0,
                            0.0,
                            0.0,
                            0.0,
                            0.0,
                            0.0,
                            0.0,
                            0.0,
                            0.0,
                            0.0,
                            0.0,
                            0.0,
                            0.0,
                            0.0,
                            0.0,
                            0.0,
                            0.0,
                            0.0,
                            0.0,
                            0.0,
                            0.0,
                            0.0,
                            0.0,
                            0.0,
                            0.0,
                            0.0,
                            0.0,
                            0.0
                        ],
                        [
                            4.54,
                            5.43,
                            5.51,
                            5.53,
                            3.17,
                            1.7,
                            2.99,
                            2.26,
                            3.34,
                            2.34,
                            3.22,
                            4.68,
                            3.14,
                            2.5,
                            2.31,
                            3.09,
                            2.09,
                            1.2,
                            4.11,
                            4.61,
                            5.29,
                            5.31,
                            5.44,
                            4.01,
                            5.53,
                            5.34,
                            2.17,
                            3.85
                        ],
                        [
                            0.0,
                            0.0,
                            0.0,
                            0.0,
                            0.0,
                            0.0,
                            0.0,
                            0.0,
                            0.0,
                            0.0,
                            0.0,
                            0.0,
                            0.0,
                            0.0,
                            0.0,
                            0.0,
                            0.0,
                            0.0,
                            0.0,
                            0.0,
                            0.0,
                            0.0,
                            0.0,
                            0.0,
                            0.0,
                            0.0,
                            0.0,
                            0.0
                        ],
                        [
                            0.0,
                            0.0,
                            0.0,
                            0.0,
                            0.0,
                            0.0,
                            0.0,
                            0.0,
                            0.0,
                            0.0,
                            0.0,
                            0.0,
                            0.0,
                            0.0,
                            0.0,
                            0.0,
                            0.0,
                            0.0,
                            0.0,
                            0.0,
                            0.0,
                            0.0,
                            0.0,
                            0.0,
                            0.0,
                            0.0,
                            0.0,
                            0.0
                        ],
                        [
                            11.15,
                            11.53,
                            11.57,
                            12.18,
                            4.55,
                            4.68,
                            4.23,
                            4.54,
                            3.55,
                            8.67,
                            5.71,
                            9.06,
                            4.31,
                            3.65,
                            5.55,
                            2.35,
                            1.18,
                            0.37,
                            9.44,
                            9.88,
                            10.79,
                            10.73,
                            8.68,
                            7.88,
                            8.72,
                            3.15,
                            1.48,
                            6.05
                        ],
                        [
                            6.35,
                            11.21,
                            11.32,
                            11.22,
                            4.76,
                            4.56,
                            4.22,
                            3.32,
                            4.59,
                            7.25,
                            5.73,
                            10.96,
                            4.42,
                            3.69,
                            3.71,
                            4.89,
                            2.72,
                            0.94,
                            9.01,
                            11.81,
                            12.41,
                            12.49,
                            12.67,
                            7.79,
                            12.47,
                            6.12,
                            3.69,
                            4.67
                        ],
                        [
                            10.92,
                            12.35,
                            12.1,
                            12.17,
                            5.27,
                            4.27,
                            4.2,
                            2.05,
                            4.2,
                            11.16,
                            4.42,
                            11.88,
                            4.44,
                            4.07,
                            3.46,
                            5.37,
                            2.87,
                            0.81,
                            4.31,
                            5.98,
                            10.26,
                            5.68,
                            11.79,
                            4.33,
                            11.02,
                            4.14,
                            3.75,
                            4.8
                        ],
                        [
                            0.0,
                            0.0,
                            0.0,
                            0.0,
                            0.0,
                            0.0,
                            0.0,
                            0.0,
                            0.0,
                            0.0,
                            0.0,
                            0.0,
                            0.0,
                            0.0,
                            0.0,
                            0.0,
                            0.0,
                            0.0,
                            0.0,
                            0.0,
                            0.0,
                            0.0,
                            0.0,
                            0.0,
                            0.0,
                            0.0,
                            0.0,
                            0.0
                        ],
                        [
                            0.0,
                            0.0,
                            0.0,
                            0.0,
                            0.0,
                            0.0,
                            0.0,
                            0.0,
                            0.0,
                            0.0,
                            0.0,
                            0.0,
                            0.0,
                            0.0,
                            0.0,
                            0.0,
                            0.0,
                            0.0,
                            0.0,
                            0.0,
                            0.0,
                            0.0,
                            0.0,
                            0.0,
                            0.0,
                            0.0,
                            0.0,
                            0.0
                        ],
                        [
                            3.23,
                            5.61,
                            5.1,
                            3.83,
                            3.42,
                            3.45,
                            3.55,
                            2.45,
                            3.67,
                            5.38,
                            4.02,
                            5.53,
                            3.93,
                            4.67,
                            3.04,
                            5.4,
                            3.79,
                            1.63,
                            4.19,
                            3.77,
                            3.18,
                            3.29,
                            3.81,
                            4.29,
                            3.65,
                            5.15,
                            4.23,
                            1.57
                        ],
                        [
                            4.11,
                            5.48,
                            5.55,
                            5.39,
                            3.38,
                            3.34,
                            4.12,
                            1.91,
                            3.63,
                            5.64,
                            3.94,
                            5.57,
                            3.96,
                            4.27,
                            3.23,
                            5.64,
                            3.86,
                            1.63,
                            3.49,
                            3.88,
                            3.83,
                            3.95,
                            4.54,
                            3.55,
                            4.79,
                            5.43,
                            4.24,
                            3.95
                        ],
                        [
                            0.0,
                            0.0,
                            0.0,
                            0.0,
                            0.0,
                            0.0,
                            0.0,
                            0.0,
                            0.0,
                            0.0,
                            0.0,
                            0.0,
                            0.0,
                            0.0,
                            0.0,
                            0.0,
                            0.0,
                            0.0,
                            0.0,
                            0.0,
                            0.0,
                            0.0,
                            0.0,
                            0.0,
                            0.0,
                            0.0,
                            0.0,
                            0.0
                        ],
                        [
                            3.92,
                            4.29,
                            3.92,
                            2.43,
                            3.81,
                            3.58,
                            3.22,
                            1.39,
                            2.78,
                            4.58,
                            2.85,
                            4.23,
                            3.05,
                            3.17,
                            2.3,
                            5.14,
                            4.3,
                            2.51,
                            3.56,
                            3.39,
                            3.68,
                            3.39,
                            4.09,
                            2.36,
                            3.63,
                            3.72,
                            3.79,
                            2.52
                        ],
                        [
                            2.75,
                            2.58,
                            2.44,
                            2.17,
                            2.7,
                            2.69,
                            2.38,
                            1.07,
                            1.74,
                            2.67,
                            1.98,
                            2.58,
                            2.46,
                            2.62,
                            1.58,
                            2.83,
                            3.01,
                            3.17,
                            2.53,
                            2.55,
                            2.57,
                            2.63,
                            2.57,
                            2.41,
                            2.5,
                            1.81,
                            1.96,
                            2.92
                        ],
                        [
                            0.0,
                            0.0,
                            0.0,
                            0.0,
                            0.0,
                            0.0,
                            0.0,
                            0.0,
                            0.0,
                            0.0,
                            0.0,
                            0.0,
                            0.0,
                            0.0,
                            0.0,
                            0.0,
                            0.0,
                            0.0,
                            0.0,
                            0.0,
                            0.0,
                            0.0,
                            0.0,
                            0.0,
                            0.0,
                            0.0,
                            0.0,
                            0.0
                        ],
                        [
                            3.05,
                            3.14,
                            3.4,
                            3.3,
                            2.5,
                            2.88,
                            3.01,
                            2.33,
                            2.62,
                            1.79,
                            2.66,
                            2.98,
                            2.72,
                            2.32,
                            2.04,
                            2.05,
                            1.57,
                            1.15,
                            3.06,
                            3.2,
                            3.13,
                            3.51,
                            3.24,
                            3.09,
                            3.39,
                            3.88,
                            3.18,
                            2.6
                        ],
                        [
                            2.51,
                            2.76,
                            2.79,
                            2.64,
                            2.57,
                            2.6,
                            2.54,
                            1.94,
                            2.21,
                            1.89,
                            2.36,
                            2.62,
                            2.4,
                            2.4,
                            1.82,
                            2.39,
                            1.97,
                            1.57,
                            2.3,
                            2.5,
                            2.58,
                            2.4,
                            2.27,
                            2.25,
                            2.63,
                            2.96,
                            3.07,
                            3.13
                        ]
                    ]
                },
                {
                    "children_left": [
                        1,
                        2,
                        3,
                        4,
                        5,
                        6,
                        -1,
                        -1,
                        9,
                        -1,
                        -1,
                        -1,
                        13,
                        14,
                        -1,
                        -1,
                        -1,
                        18,
                        19,
                        -1,
                        -1,
                        22,
                        -1,
                        24,
                        -1,
                        26,
                        -1,
                        -1,
                        29,
                        30,
                        31,
                        -1,
                        -1,
                        34,
                        35,
                        -1,
                        -1,
                        -1,
                        39,
                        40,
                        -1,
                        42,
                        -1,
                        44,
                        -1,
                        -1,
                        47,
                        -1,
                        -1
                    ],
                    "children_right": [
                        28,
                        17,
                        12,
                        11,
                        8,
                        7,
                        -1,
                        -1,
                        10,
                        -1,
                        -1,
                        -1,
                        16,
                        15,
                        -1,
                        -1,
                        -1,
                        21,
                        20,
                        -1,
                        -1,
                        23,
                        -1,
                        25,
                        -1,
                        27,
                        -1,
                        -1,
                        38,
                        33,
                        32,
                        -1,
                        -1,
                        37,
                        36,
                        -1,
                        -1,
                        -1,
                        46,
                        41,
                        -1,
                        43,
                        -1,
                        45,
                        -1,
                        -1,
                        48,
                        -1,
                        -1
                    ],
                    "feature": [
                        1.0,
                        1.0,
                        0.0,
                        1.0,
                        1.0,
                        1.0,
                        -2.0,
                        -2.0,
                        0.0,
                        -2.0,
                        -2.0,
                        -2.0,
                        1.0,
                        0.0,
                        -2.0,
                        -2.0,
                        -2.0,
                        0.0,
                        0.0,
                        -2.0,
                        -2.0,
                        0.0,
                        -2.0,
                        0.0,
                        -2.0,
                        1.0,
                        -2.0,
                        -2.0,
                        1.0,
                        0.0,
                        0.0,
                        -2.0,
                        -2.0,
                        1.0,
                        0.0,
                        -2.0,
                        -2.0,
                        -2.0,
                        0.0,
                        0.0,
                        -2.0,
                        1.0,
                        -2.0,
                        0.0,
                        -2.0,
                        -2.0,
                        0.0,
                        -2.0,
                        -2.0
                    ],
                    "threshold": [
                        1152.0,
                        320.0,
                        10240.0,
                        96.0,
                        48.0,
                        24.0,
                        -2.0,
                        -2.0,
                        2560.0,
                        -2.0,
                        -2.0,
                        -2.0,
                        48.0,
                        40960.0,
                        -2.0,
                        -2.0,
                        -2.0,
                        96.0,
                        48.0,
                        -2.0,
                        -2.0,
                        8256.0,
                        -2.0,
                        40960.0,
                        -2.0,
                        768.0,
                        -2.0,
                        -2.0,
                        10240.0,
                        768.0,
                        320.0,
                        -2.0,
                        -2.0,
                        2928.0,
                        1520.0,
                        -2.0,
                        -2.0,
                        -2.0,
                        96.0,
                        24.0,
                        -2.0,
                        40960.0,
                        -2.0,
                        48.0,
                        -2.0,
                        -2.0,
                        576.0,
                        -2.0,
                        -2.0
                    ],
                    "value": [
                        [
                            0.0,
                            0.0,
                            0.0,
                            0.0,
                            0.0,
                            0.0,
                            0.0,
                            0.0,
                            0.0,
                            0.0,
                            0.0,
                            0.0,
                            0.0,
                            0.0,
                            0.0,
                            0.0,
                            0.0,
                            0.0,
                            0.0,
                            0.0,
                            0.0,
                            0.0,
                            0.0,
                            0.0,
                            0.0,
                            0.0,
                            0.0,
                            0.0
                        ],
                        [
                            0.0,
                            0.0,
                            0.0,
                            0.0,
                            0.0,
                            0.0,
                            0.0,
                            0.0,
                            0.0,
                            0.0,
                            0.0,
                            0.0,
                            0.0,
                            0.0,
                            0.0,
                            0.0,
                            0.0,
                            0.0,
                            0.0,
                            0.0,
                            0.0,
                            0.0,
                            0.0,
                            0.0,
                            0.0,
                            0.0,
                            0.0,
                            0.0
                        ],
                        [
                            0.0,
                            0.0,
                            0.0,
                            0.0,
                            0.0,
                            0.0,
                            0.0,
                            0.0,
                            0.0,
                            0.0,
                            0.0,
                            0.0,
                            0.0,
                            0.0,
                            0.0,
                            0.0,
                            0.0,
                            0.0,
                            0.0,
                            0.0,
                            0.0,
                            0.0,
                            0.0,
                            0.0,
                            0.0,
                            0.0,
                            0.0,
                            0.0
                        ],
                        [
                            0.0,
                            0.0,
                            0.0,
                            0.0,
                            0.0,
                            0.0,
                            0.0,
                            0.0,
                            0.0,
                            0.0,
                            0.0,
                            0.0,
                            0.0,
                            0.0,
                            0.0,
                            0.0,
                            0.0,
                            0.0,
                            0.0,
                            0.0,
                            0.0,
                            0.0,
                            0.0,
                            0.0,
                            0.0,
                            0.0,
                            0.0,
                            0.0
                        ],
                        [
                            0.0,
                            0.0,
                            0.0,
                            0.0,
                            0.0,
                            0.0,
                            0.0,
                            0.0,
                            0.0,
                            0.0,
                            0.0,
                            0.0,
                            0.0,
                            0.0,
                            0.0,
                            0.0,
                            0.0,
                            0.0,
                            0.0,
                            0.0,
                            0.0,
                            0.0,
                            0.0,
                            0.0,
                            0.0,
                            0.0,
                            0.0,
                            0.0
                        ],
                        [
                            0.0,
                            0.0,
                            0.0,
                            0.0,
                            0.0,
                            0.0,
                            0.0,
                            0.0,
                            0.0,
                            0.0,
                            0.0,
                            0.0,
                            0.0,
                            0.0,
                            0.0,
                            0.0,
                            0.0,
                            0.0,
                            0.0,
                            0.0,
                            0.0,
                            0.0,
                            0.0,
                            0.0,
                            0.0,
                            0.0,
                            0.0,
                            0.0
                        ],
                        [
                            2.57,
                            1.43,
                            1.66,
                            1.74,
                            1.16,
                            1.15,
                            0.39,
                            0.78,
                            1.73,
                            0.38,
                            2.62,
                            0.68,
                            0.69,
                            0.21,
                            2.52,
                            0.11,
                            0.05,
                            0.02,
                            2.76,
                            2.57,
                            2.41,
                            1.78,
                            2.24,
                            2.62,
                            1.13,
                            0.12,
                            0.06,
                            1.6
                        ],
                        [
                            4.41,
                            2.68,
                            3.07,
                            3.15,
                            2.21,
                            2.15,
                            0.76,
                            1.5,
                            3.23,
                            0.74,
                            4.37,
                            1.29,
                            1.32,
                            0.42,
                            4.13,
                            0.23,
                            0.1,
                            0.03,
                            4.41,
                            4.48,
                            4.37,
                            3.57,
                            4.3,
                            4.29,
                            2.47,
                            0.25,
                            0.12,
                            3.32
                        ],
                        [
                            0.0,
                            0.0,
                            0.0,
                            0.0,
                            0.0,
                            0.0,
                            0.0,
                            0.0,
                            0.0,
                            0.0,
                            0.0,
                            0.0,
                            0.0,
                            0.0,
                            0.0,
                            0.0,
                            0.0,
                            0.0,
                            0.0,
                            0.0,
                            0.0,
                            0.0,
                            0.0,
                            0.0,
                            0.0,
                            0.0,
                            0.0,
                            0.0
                        ],
                        [
                            2.68,
                            1.68,
                            1.73,
                            1.79,
                            2.2,
                            2.19,
                            1.11,
                            1.78,
                            2.59,
                            0.99,
                            2.7,
                            1.46,
                            1.58,
                            0.69,
                            2.55,
                            0.11,
                            0.05,
                            0.02,
                            2.68,
                            2.68,
                            2.59,
                            1.89,
                            2.65,
                            2.68,
                            1.26,
                            0.12,
                            0.06,
                            2.3
                        ],
                        [
                            6.71,
                            4.38,
                            5.07,
                            5.52,
                            4.37,
                            4.32,
                            1.51,
                            2.96,
                            6.32,
                            1.42,
                            6.81,
                            2.41,
                            2.53,
                            0.84,
                            6.59,
                            0.45,
                            0.2,
                            0.06,
                            6.59,
                            6.63,
                            6.68,
                            6.06,
                            6.63,
                            6.67,
                            4.79,
                            0.5,
                            0.24,
                            4.72
                        ],
                        [
                            9.0,
                            6.77,
                            7.68,
                            8.87,
                            8.16,
                            8.16,
                            2.87,
                            5.76,
                            8.52,
                            2.56,
                            9.0,
                            4.16,
                            4.66,
                            1.63,
                            8.97,
                            0.86,
                            0.4,
                            0.12,
                            8.68,
                            8.92,
                            9.0,
                            8.81,
                            8.67,
                            8.43,
                            7.49,
                            0.98,
                            0.47,
                            5.83
                        ],
                        [
                            0.0,
                            0.0,
                            0.0,
                            0.0,
                            0.0,
                            0.0,
                            0.0,
                            0.0,
                            0.0,
                            0.0,
                            0.0,
                            0.0,
                            0.0,
                            0.0,
                            0.0,
                            0.0,
                            0.0,
                            0.0,
                            0.0,
                            0.0,
                            0.0,
                            0.0,
                            0.0,
                            0.0,
                            0.0,
                            0.0,
                            0.0,
                            0.0
                        ],
                        [
                            0.0,
                            0.0,
                            0.0,
                            0.0,
                            0.0,
                            0.0,
                            0.0,
                            0.0,
                            0.0,
                            0.0,
                            0.0,
                            0.0,
                            0.0,
                            0.0,
                            0.0,
                            0.0,
                            0.0,
                            0.0,
                            0.0,
                            0.0,
                            0.0,
                            0.0,
                            0.0,
                            0.0,
                            0.0,
                            0.0,
                            0.0,
                            0.0
                        ],
                        [
                            8.77,
                            4.1,
                            5.61,
                            7.46,
                            2.97,
                            2.95,
                            0.82,
                            1.82,
                            5.25,
                            0.83,
                            8.49,
                            1.61,
                            1.59,
                            0.44,
                            4.96,
                            0.42,
                            0.2,
                            0.09,
                            8.67,
                            8.85,
                            8.39,
                            8.62,
                            8.63,
                            8.19,
                            6.87,
                            0.97,
                            0.46,
                            5.18
                        ],
                        [
                            10.23,
                            2.87,
                            4.7,
                            7.93,
                            1.58,
                            1.56,
                            0.43,
                            0.88,
                            3.26,
                            0.45,
                            9.8,
                            0.85,
                            0.83,
                            0.23,
                            4.64,
                            0.22,
                            0.11,
                            0.05,
                            10.34,
                            10.48,
                            9.63,
                            9.54,
                            9.42,
                            9.54,
                            8.5,
                            1.73,
                            0.9,
                            3.1
                        ],
                        [
                            10.13,
                            6.11,
                            8.07,
                            9.51,
                            5.72,
                            5.72,
                            1.55,
                            3.52,
                            9.51,
                            1.5,
                            9.96,
                            2.84,
                            2.98,
                            0.85,
                            4.82,
                            0.79,
                            0.4,
                            0.18,
                            10.06,
                            10.25,
                            10.23,
                            10.46,
                            10.55,
                            9.89,
                            10.35,
                            1.88,
                            0.93,
                            6.4
                        ],
                        [
                            0.0,
                            0.0,
                            0.0,
                            0.0,
                            0.0,
                            0.0,
                            0.0,
                            0.0,
                            0.0,
                            0.0,
                            0.0,
                            0.0,
                            0.0,
                            0.0,
                            0.0,
                            0.0,
                            0.0,
                            0.0,
                            0.0,
                            0.0,
                            0.0,
                            0.0,
                            0.0,
                            0.0,
                            0.0,
                            0.0,
                            0.0,
                            0.0
                        ],
                        [
                            0.0,
                            0.0,
                            0.0,
                            0.0,
                            0.0,
                            0.0,
                            0.0,
                            0.0,
                            0.0,
                            0.0,
                            0.0,
                            0.0,
                            0.0,
                            0.0,
                            0.0,
                            0.0,
                            0.0,
                            0.0,
                            0.0,
                            0.0,
                            0.0,
                            0.0,
                            0.0,
                            0.0,
                            0.0,
                            0.0,
                            0.0,
                            0.0
                        ],
                        [
                            1.41,
                            0.99,
                            0.99,
                            0.97,
                            1.72,
                            1.72,
                            1.49,
                            1.72,
                            1.53,
                            0.66,
                            1.49,
                            0.93,
                            1.17,
                            1.12,
                            1.38,
                            0.06,
                            0.03,
                            0.01,
                            0.95,
                            1.12,
                            1.19,
                            0.89,
                            1.25,
                            0.91,
                            0.6,
                            0.06,
                            0.03,
                            1.35
                        ],
                        [
                            2.43,
                            1.82,
                            1.81,
                            1.77,
                            2.68,
                            2.68,
                            2.43,
                            2.68,
                            2.76,
                            1.31,
                            2.74,
                            1.8,
                            2.24,
                            2.05,
                            2.68,
                            0.12,
                            0.05,
                            0.02,
                            1.86,
                            2.16,
                            2.28,
                            1.74,
                            2.45,
                            1.84,
                            1.21,
                            0.12,
                            0.06,
                            2.36
                        ],
                        [
                            0.0,
                            0.0,
                            0.0,
                            0.0,
                            0.0,
                            0.0,
                            0.0,
                            0.0,
                            0.0,
                            0.0,
                            0.0,
                            0.0,
                            0.0,
                            0.0,
                            0.0,
                            0.0,
                            0.0,
                            0.0,
                            0.0,
                            0.0,
                            0.0,
                            0.0,
                            0.0,
                            0.0,
                            0.0,
                            0.0,
                            0.0,
                            0.0
                        ],
                        [
                            4.16,
                            3.4,
                            3.38,
